encog,BasicNetwork,java,3.0.1,1,1385883815420
[BASIC]
[BASIC:PARAMS]
[BASIC:NETWORK]
beginTraining=0
connectionLimit=0
contextTargetOffset=0,0,0
contextTargetSize=0,0,0
endTraining=2
hasContext=f
inputCount=6
layerCounts=2,13,7
layerFeedCounts=1,12,6
layerContextCount=0,0,0
layerIndex=0,2,15
output=0.03756835850513853,1,-0.16330905918165325,-0.11701672576808983,0.4898359516148226,0.782223750978112,0.41077135388878483,0.5299669041030766,0.4606613851682833,0.6030117366911215,-0.037855458011009396,-0.8106234054910655,-0.05020211870606915,-0.08277569085957118,1,0.1414646338415396,0.14361001317523056,0.14677461478192738,0.08056747640330827,0.11228533685601057,0.07857329671241309,1
outputCount=1
weightIndex=0,13,97
weights=-0.2589169139251056,0.18050532439424777,0.48493850366657926,0.3826317492292309,0.31514546690893197,0.3691013675306023,-0.1985350914866692,-0.37626087398442976,0.2728221575920065,0.2661722351305278,-0.25727752569266255,-0.18805402815269692,-0.32952523661173333,0.4752260736754032,-0.5215650354171373,0.22153346255964718,0.4511410045091031,-1.0153370062457008,-0.7721673914641901,-0.051293858585738684,-0.3079287812987127,-0.1671561226525119,0.7980604536846445,-1.5465735113725851,0.15208911295354402,-4.014275463283904,0.2558170571041082,-0.7144655481007626,-0.5387397171525019,-0.6199121779856083,3.068337055932974,0.2716476344745255,3.65307690383859,0.2405273590795768,-0.13757429070749305,0.10336339683276846,0.9717914882925157,4.460703459409469,-1.396128999867443,5.222270512299003,0.3001042437977442,-0.11821777916774806,-0.4667765714182779,0.6939445575340647,0.670049907277033,-0.4099388072696652,-0.21441018713538446,0.4273355771378189,0.3594259972431538,0.41117659743991,-0.17341315937450652,-0.17171696320124682,0.7796284542455012,-0.05135912472853121,0.4359860574261571,-0.08257400460933326,0.6062243453393681,0.33176429739656416,1.5327379902254934,0.7152829922203022,-3.528339079591117,0.44750595503199214,-0.08883909626144156,0.2671608868532156,0.48018329563789247,-0.8020831704529411,-0.23015695207543746,2.8708521720719355,0.4664810205144056,0.5484665489058257,-0.3439124802465439,0.5333384079159926,-1.1313506608350161,0.2511454651119874,0.3401731947124704,-0.10813185422306697,0.3595381138104622,-0.18046972740136782,1.6179513962695262,-17.216954987723238,2.1515084309622043,2.2438638570008016,-0.42202732134598764,0.19409792742665097,-0.4360580957694404,-0.5304270945944172,0.35766151407869684,0.43413950705037285,-0.26990070285583156,0.006416794142237129,1.1833791571972299,0.22077487826979453,-0.14595004823975394,3.1354385974978127,2.8243209973454935,2.0998273756232884,-0.9953901159392887
biasActivation=1,1,1
[BASIC:ACTIVATION]
"ActivationTANH"
"ActivationTANH"
"ActivationTANH"
