encog,BasicNetwork,java,3.0.1,1,1385883789315
[BASIC]
[BASIC:PARAMS]
[BASIC:NETWORK]
beginTraining=0
connectionLimit=0
contextTargetOffset=0,0,0
contextTargetSize=0,0,0
endTraining=2
hasContext=f
inputCount=6
layerCounts=2,13,7
layerFeedCounts=1,12,6
layerContextCount=0,0,0
layerIndex=0,2,15
output=0.1393154409001943,1,-0.5030724575679435,0.09705594480000333,-0.4053741801564099,0.6193923251553684,0.06277015299574215,-0.22381232091350525,0.5323597045180446,0.32291988017462864,-0.23786400994028792,-0.5566168066182656,-0.13918527850743348,0.4090059147943857,1,0.1414646338415396,0.14361001317523056,0.14677461478192738,0.08056747640330827,0.11228533685601057,0.07857329671241309,1
outputCount=1
weightIndex=0,13,97
weights=-0.46972582838177573,0.08997423781806513,-0.24202074105981944,0.45360434930483606,0.29327171743984215,0.18909018094058716,-0.3097597291537954,-0.3151362523093021,0.2656219258094057,0.003349658475422052,-0.16996329663944695,0.21611821619211843,-0.24030355860750746,0.344036860386917,-0.04991537584606818,-0.48427642888189043,-0.08608341312125187,0.02769472739698639,0.373526119666781,-0.5493557672855292,-0.5661575313454934,0.566278074506814,0.40809215883437305,-0.08490529370481306,-0.14840830504384697,0.4874396310095869,0.0214378696566572,-0.011879376625907672,-0.08712605863366116,-0.2561952486094748,-0.2710184827023653,-0.460125838882985,0.45989588111276,-0.34090249708084425,0.09311321333703292,0.0030874404302148844,0.20409467037831253,-0.5456586346108323,0.26572199073447256,0.23384766580422806,0.676198508356863,0.6138593687070416,0.04510967939613864,-0.020339885206854095,-0.13147484705219745,-0.49337505090278094,-0.5511593326476052,0.08181836104385387,0.637988565965479,-0.22374177605108994,0.528581232306551,-0.5326862716708514,0.08722964753696077,0.17547282941861078,-0.3440343532980766,0.2508133077333236,0.19689152918292513,0.01268140301516865,0.009935793834908717,-0.6301166225741434,0.01680729328294535,0.5964459929715322,-0.0889646019306305,0.14833464325932455,-0.5871886655441657,0.10187598466123957,0.2414410115868317,-0.9663471099531364,0.4529817927359654,0.9055362739750943,0.3970471061498834,-0.17065764838627293,0.45135444379189,-0.112388192875701,0.19249107701865106,-0.4414514859986587,0.5018101750907172,0.1355557568892339,0.12291236832949723,-13.655541102270803,-0.383390134071765,0.1838009671437418,0.39238593624532936,-0.06083510016114044,-0.14675409602047218,-0.6313549587025209,-0.23386507321854857,0.48887322504130576,0.6159173706030365,-0.10219244388440163,0.652800107365677,-0.29503449360663575,-0.052965589727892115,0.22903824225363414,0.2154428952401128,0.5852302932876908,0.3035850489162337
biasActivation=1,1,1
[BASIC:ACTIVATION]
"ActivationTANH"
"ActivationTANH"
"ActivationTANH"
