encog,BasicNetwork,java,3.0.1,1,1385883797957
[BASIC]
[BASIC:PARAMS]
[BASIC:NETWORK]
beginTraining=0
connectionLimit=0
contextTargetOffset=0,0,0
contextTargetSize=0,0,0
endTraining=2
hasContext=f
inputCount=6
layerCounts=2,13,7
layerFeedCounts=1,12,6
layerContextCount=0,0,0
layerIndex=0,2,15
output=0.0355142760304052,1,-0.16825343003198825,0.3164503892099363,-0.03770152536459815,-0.7909179442229667,0.7660618393838752,-0.32162605873199496,-0.07123017709787781,-0.47050044520499396,0.7161459610231962,0.8587566062339564,-0.6176483309189842,0.02220405140110251,1,0.1414646338415396,0.14361001317523056,0.14677461478192738,0.08056747640330827,0.11228533685601057,0.07857329671241309,1
outputCount=1
weightIndex=0,13,97
weights=-0.16935604198771828,-0.10382487878660648,0.2284824875635585,0.3669440346812371,0.1286914182545527,-0.31518893458007363,-0.12300704192316465,-0.2684292349398745,0.1795286264533723,0.07773036369602891,-0.2762546008512092,0.18929737330846233,-0.3664413065821932,0.18472089414149145,0.08465443796343101,-0.9232572143992964,0.7899047615430458,-0.18133767333162754,-0.49314584026580416,-0.07717761698918052,0.5335444568163865,0.009097831595848975,0.03356892859496788,1.6038894953939666,-0.3124197562909328,0.7605132618874942,0.09208904551783322,-0.39388034326452825,-0.9163220774823388,-0.41848197466312154,0.19495744077994517,1.3328079191112072,2.819379998698573,-0.1758737052327802,0.3960043109878255,-0.25343793873645853,0.19788849662019414,-11.491770292235667,2.391647008111094,0.9967811280821679,-0.5435521239742163,0.4719927117761066,0.2577007425999025,1.7096624349021423,6.835796527048594,-1.6836520595951525,3.9293346416642208,-0.01442264807552844,0.47925359927527217,-0.17344550414670362,-0.5660781417122375,0.24744661693115363,-0.5092877354048727,-0.7743441421357063,-0.1951705793442671,0.7947606645873342,-0.46062813098315775,0.46361453568495115,3.5377835473549117,-2.172734181475322,-0.41071195921341497,-0.19447068262248113,0.12915501938098972,0.2402053130822045,-0.5217868624899501,0.9285536398248783,0.2924390890674017,-0.6280932497831375,-0.5451910460316574,-0.2016636755106094,0.000514903876668353,0.5414589640121804,7.328539277272892,-0.8351705972382047,0.23919948860949208,0.33321079421921396,-1.5449812837504244,0.02081527540429586,-0.2112333933822491,3.640925233673244,-1.1255153056209006,11.256316529163296,0.48375666478894674,-0.12308763373413435,0.5195748881868216,-0.3464071387101734,-1.1790800883564592,2.8184464516173535,-2.5960359862253686,-0.7450494019625981,-0.7619824177252746,0.2879627627711897,0.3012695860538683,2.34583093046416,-2.0278094850910384,-6.411301115852612,0.5868808594824958
biasActivation=1,1,1
[BASIC:ACTIVATION]
"ActivationTANH"
"ActivationTANH"
"ActivationTANH"
