encog,BasicNetwork,java,3.0.1,1,1385883789544
[BASIC]
[BASIC:PARAMS]
[BASIC:NETWORK]
beginTraining=0
connectionLimit=0
contextTargetOffset=0,0,0
contextTargetSize=0,0,0
endTraining=2
hasContext=f
inputCount=6
layerCounts=2,13,7
layerFeedCounts=1,12,6
layerContextCount=0,0,0
layerIndex=0,2,15
output=0.14132574616571458,1,0.3450773539733446,-0.3763439117252638,0.1844434232043458,-0.13835939418304982,0.3789061021790735,-0.41953762032849706,0.4732136700711085,-0.2641859461170106,-0.0897738478866398,-0.5728819133192545,0.10415094283429094,0.28291844581166664,1,0.1414646338415396,0.14361001317523056,0.14677461478192738,0.08056747640330827,0.11228533685601057,0.07857329671241309,1
outputCount=1
weightIndex=0,13,97
weights=0.17736605386723467,-0.3644775882100796,-0.2217802197376339,0.1858376075553998,-0.2976587588972395,-0.3226345390663317,-0.3485338413311136,0.45721728253871086,-0.48301878555293404,0.1227404310248321,0.45936879192537816,0.2971275231274161,0.16871795517897167,-0.32798624064648285,-0.15386377239662194,-0.5405047409002021,0.282992191751322,0.06862827404335219,0.642322336889852,0.42669674361014787,-0.4034197283160902,-0.0544002871877656,-0.42401133495324933,-0.5823079832131246,-0.27887717562314535,-0.2905628055253262,-0.16761789333374777,-0.2418820578792891,-0.016451359561333805,-0.31463849819305445,0.5357084152912267,-0.5483456054819669,-0.5077920808393157,0.3276494056848205,0.6074317039045743,0.15311973676174154,-0.32901471526692355,-0.08905766975592279,0.35437918357084813,-0.5854663542548146,-0.18549559753817288,-0.48140563300940303,-0.29535248106789347,-0.2712430521308186,0.6768417235517915,-0.09262406724399824,0.28337652346907555,0.48271386188502746,-0.4725679430877061,-0.5504361523585563,0.29217553945974417,-0.5414347323288526,-0.26066586113826345,0.03323609413048313,-0.27383538647265426,-0.5885046490688709,0.6887346629241522,0.239773987141603,-0.12881546159522142,0.25695759733293017,0.1815422302701533,0.4306152825566038,0.43733844526563126,-0.6122753069539413,-0.10736957384437268,-0.4594677040074608,-0.2076363624942625,-0.5321925944982084,-0.12663424660733646,-0.28689291309521997,-0.4632754593516117,-0.317809393078153,0.5887083121517915,0.3539692531752965,-0.0009859767658357854,-0.023352475091216924,-2.0213656780070286,-2.255210604277055,-0.42503873060840686,-0.027526351819438608,-0.7164016755876789,-0.20758445119076793,0.11937505056811999,-0.06769339988965954,0.29536222345536955,0.3527025182334611,0.5584187913257319,0.17528305481795506,0.3768554008490521,-0.07436140525948554,-0.39363044666552466,0.13324471800950705,0.6105456592794994,0.06527191935214782,-0.39413537803492454,0.5996771813709654,0.2296667339125662
biasActivation=1,1,1
[BASIC:ACTIVATION]
"ActivationTANH"
"ActivationTANH"
"ActivationTANH"
