encog,BasicNetwork,java,3.0.1,1,1385883806364
[BASIC]
[BASIC:PARAMS]
[BASIC:NETWORK]
beginTraining=0
connectionLimit=0
contextTargetOffset=0,0,0
contextTargetSize=0,0,0
endTraining=2
hasContext=f
inputCount=6
layerCounts=2,13,7
layerFeedCounts=1,12,6
layerContextCount=0,0,0
layerIndex=0,2,15
output=0.07151216756481844,1,-0.4027721264475028,-0.8259381024839721,-0.7967228213847278,-0.009154301724485146,0.7764016556275923,0.06391097694486493,-0.5421233843823302,-0.9976275065726974,0.31029699172252323,0.2404162189201102,0.25087573056495677,-0.9879728761268891,1,0.1414646338415396,0.14361001317523056,0.14677461478192738,0.08056747640330827,0.11228533685601057,0.07857329671241309,1
outputCount=1
weightIndex=0,13,97
weights=-0.17683545228704584,-0.4087487713273933,0.42632992679211795,0.21919469337043032,0.2788285361851864,-0.6411977611770824,-0.4776891281852821,-0.24828630491770137,-0.17478389871847827,-0.347006582695151,-0.30793937387054804,0.4977799769842447,0.029023731412006003,-0.400528514395522,0.062128181411102726,0.06935550199992356,2.2271018763937054,-0.47327416758027335,-0.927855801870118,-0.44278023063378513,-1.5178846944345912,-0.5867345174494486,-0.687564387862289,3.9758592342391688,2.5595509003237162,-9.852806446754748,-0.608871640180188,0.896757292461467,0.2656824429005822,0.7406417312557408,-17.69276424855698,2.210778456838567,2.3907906256928184,-0.37392502982924136,0.6351304638021246,-0.019038859683389732,0.0785890149767573,-5.684049190472156,0.34248160876997774,2.3754819165029755,0.1250406332965282,0.9173378120655576,0.05728446683537373,0.058832633441412104,3.7887562881174075,-6.505386555719054,2.147416095942978,1.1460936673321618,1.2101855519310114,0.47106342183006855,0.00902678333822559,-5.083329982088447,-2.493544955017466,6.301369661164113,0.018245640723695663,-0.6777353291535959,0.9314099508485792,0.15840737255500176,-0.759153080912173,-0.05111046414487183,-2.526994030860706,-0.40283604938904216,4.816559734652302,-3.062481798384821,0.49318595630529843,-93.2378811718461,1.0082752608675905,44.581518100220016,0.21396541396732194,-0.2769041650202755,-0.07745962619682088,0.5044417630821978,2.535589101968526,-0.37948333353507324,-3.3610303631205483,0.3995425233689977,-0.2287078974208217,-0.08797932384793564,-0.462222061038632,1.3584041346281073,-0.22470823795513808,-1.756606618393639,0.4118576938938497,-0.012708231475143899,-0.33449829252945257,-0.3865369744367393,1.2264496068683766,0.3189575264222337,-2.9568344509353084,0.46061805556614654,-0.004962527859800557,-0.05772836203393424,-0.9614532972016775,-13.88562369714694,-0.61786923571002,-10.386844408627908,-0.39950790793069396
biasActivation=1,1,1
[BASIC:ACTIVATION]
"ActivationTANH"
"ActivationTANH"
"ActivationTANH"
