encog,BasicNetwork,java,3.0.1,1,1385883789388
[BASIC]
[BASIC:PARAMS]
[BASIC:NETWORK]
beginTraining=0
connectionLimit=0
contextTargetOffset=0,0,0
contextTargetSize=0,0,0
endTraining=2
hasContext=f
inputCount=6
layerCounts=2,13,7
layerFeedCounts=1,12,6
layerContextCount=0,0,0
layerIndex=0,2,15
output=0.13530841351836595,1,-0.20241777592118526,-0.21881785501496262,0.38577925874090807,-0.11943717895504884,-0.04387430592842047,-0.44868843188245405,-0.06292085284015683,0.29332697321863765,-0.03314967486320826,0.644373278239047,-0.20412154760787116,-0.5581960229170015,1,0.1414646338415396,0.14361001317523056,0.14677461478192738,0.08056747640330827,0.11228533685601057,0.07857329671241309,1
outputCount=1
weightIndex=0,13,97
weights=0.037701699634141904,-0.09547131253194861,0.42292267583679805,0.112273093380754,0.3314898959025628,0.3115218038393903,0.28487613175034,-0.3898159785616106,0.3995974099051283,-0.0808259600320018,0.49634236820914474,0.23969266038415546,0.560165399215021,-0.9818524816926439,-0.625857108129584,0.008928735688934271,-0.47386773523540715,-1.0941323639400609,-0.3800603309141351,0.21310983419248372,-0.1098904635017485,-0.35947907133634205,0.23728439015902725,-0.3454957680911353,0.6538054503930902,-0.5119026759611478,-0.1954262557592212,-0.5201856970411044,0.00593173924643063,0.2597027065259176,-0.38552392044369677,0.45956309523867095,0.4449475477943278,0.385947516565107,0.3156968635176955,-0.2898816892738452,0.6425761630528589,0.22098804059188665,0.4506772985545848,-0.32730060351858226,-0.2600457337746185,0.09545484735262377,0.6035897626770469,-0.6320285343305893,0.1095493239253806,-0.005019063019471537,0.47118303268665995,-0.09660671426917046,0.6376241246662442,0.1540809545253622,-0.3235942992200238,-0.39755692190840036,0.02147563131369525,-0.5524431424738256,-0.47486425805383625,0.1091931455910452,0.43330371315980326,0.07838675640834905,0.48284389299311486,0.2710534034733827,0.5558216700337625,-0.26519256986227535,-0.5724574117053427,0.4280532914507216,-0.47260597138141314,-0.20626167696519812,-0.167767338790709,0.34992597806608683,0.39903982954581707,0.23800008129183287,-0.5461794097612401,0.3579135303007029,0.3379110411671576,-0.6418886535822886,-0.407915826912682,0.035975126888080786,0.5375511279633497,0.2640932398378365,0.10224410597355293,0.5253742193797867,-0.4485971155675296,0.2343345131426985,0.6262691007497174,0.37079574961189127,0.6116975432098591,0.4842898043600073,-0.5102184032519367,-0.22800728469514314,0.04936691657344708,-0.35558141299327645,0.27245266268200397,-0.27733612074307573,-0.16235115175700324,0.3533614361740069,0.4474938395589477,-0.3797667430657634,-0.6539709264513655
biasActivation=1,1,1
[BASIC:ACTIVATION]
"ActivationTANH"
"ActivationTANH"
"ActivationTANH"
