encog,BasicNetwork,java,3.0.1,1,1385883721597
[BASIC]
[BASIC:PARAMS]
[BASIC:NETWORK]
beginTraining=0
connectionLimit=0
contextTargetOffset=0,0,0
contextTargetSize=0,0,0
endTraining=2
hasContext=f
inputCount=6
layerCounts=2,13,7
layerFeedCounts=1,12,6
layerContextCount=0,0,0
layerIndex=0,2,15
output=0.2638466875817647,1,-0.18076680624138045,0.5584371960089368,-0.6329712382194508,-0.08666145948697626,0.02649797919499978,0.02965530341446247,0.24130458937270222,-0.11379860681848916,0.1899576468645101,-0.4981152716309294,0.6032594594904848,0.11039379000094639,1,0.25602968460111314,0.31325301204819284,0.2791164658634538,0,0,0.00000004744326659105,1
outputCount=1
weightIndex=0,13,97
weights=-0.31964151390488293,0.5253159419868266,-0.13445678395369498,-0.26512009461330394,-0.4638971472977212,-0.5271944293923866,-0.21315438568164446,0.84166815027428,-0.4804641278843527,-0.5707343311953417,0.11963619102476479,-0.9346902930775774,-0.17585014081901126,0.27435014800891083,-0.21778773101952031,-0.36978366929132417,0.4651490130131334,-0.5187417919414404,-0.525955811682022,-0.08158166778451607,0.6874854930767522,-0.27620702751383613,-0.11083864069802954,0.010367290506572117,-0.012853208305170118,0.7099670347622244,0.5720021150250691,0.24428463996193517,-0.6059572635641933,-0.007046129921843914,11.32533259290776,4.6411397301591,-26.217882280802954,-0.6171163790993324,-0.8126671382534362,0.1458140885418129,0.19826890988307078,-0.790737943109902,-0.4459779828031178,0.39098967893484665,0.020170681786628734,0.1350104702202503,-0.12542711312825314,-0.6072110816377341,0.5030275536904023,0.02433731093520587,0.1279439804264517,0.20071052153973262,0.2791364399766081,1.6759003868757376,0.7620326409235626,-2.7214789645691306,0.7207102390452692,3.1617359236334086,-0.7794800650513266,-0.7639195453209863,-0.34528737887336375,0.17636716041216324,0.22179948090229318,-0.5215171423821383,0.13803766728349182,0.500680306853631,-0.31903178160403084,0.39264290957868464,0.5668442252855634,-1.999744130101423,0.5595402140356047,-0.43167066938616216,-0.3138241987747955,-0.3557371126554942,-0.4849050479121749,0.27034710301920817,-0.24954506396848675,-0.5905333009456574,-1.5248770250794057,0.35981220220442617,0.040622047058897305,-0.37093254039099965,0.19713537420564012,1.5055295624524376,-0.24911465064089483,-2.1880565112334067,-0.4960246609435439,0.520521331582578,-0.43991089469409783,0.16062864442018582,0.20241881977241705,0.35826705541573317,-0.9836018189349935,0.6579561883268604,-0.06340688198287141,-0.03262316315637913,-0.5799812313485565,0.15990803552548252,0.5380737890075578,-0.5572845767402995,0.29918123262850704
biasActivation=1,1,1
[BASIC:ACTIVATION]
"ActivationTANH"
"ActivationTANH"
"ActivationTANH"
