encog,BasicNetwork,java,3.0.1,1,1385883746462
[BASIC]
[BASIC:PARAMS]
[BASIC:NETWORK]
beginTraining=0
connectionLimit=0
contextTargetOffset=0,0,0
contextTargetSize=0,0,0
endTraining=2
hasContext=f
inputCount=6
layerCounts=2,13,7
layerFeedCounts=1,12,6
layerContextCount=0,0,0
layerIndex=0,2,15
output=-0.002208736370406415,1,-0.5959099024472134,-0.7751802426987368,0.6180146306671958,0.9999362445778953,-0.6770309527112636,0.23301765683313008,-0.15807162858928556,0.16005137546435896,-0.30622694480006635,0.3387781454045593,-0.1326599109039925,-0.12431467552272676,1,0.25602968460111314,0.31325301204819284,0.2791164658634538,0,0,0.00000004744326659105,1
outputCount=1
weightIndex=0,13,97
weights=-0.3533292679509385,-0.22465278333787683,0.1044566426152694,0.024245312245822603,0.41312269886931036,-0.2911205451619622,-0.17891802436660045,0.18558139793085063,-0.003761793246416719,-0.37819749602964986,-0.3871585103262971,0.13638891854274796,-0.09359057383830509,-0.3850424993766618,-0.7566953112731186,-0.37654356276592704,-0.3438370501601765,-0.0707306620156634,0.30156493595305467,-0.24606183942875007,-1.0338199954265441,-0.1726290108475407,-0.5419333286769114,-20.95506996421245,-4.414002668430398,7.272716799730571,-0.5631517843433222,0.019539011622204026,-0.045783991850977375,-0.018868059286165317,-0.6053635115724978,0.9473330812641767,-0.571998881284985,0.7363922356909637,3.7034451334924063,7.0876260925585575,5.885987926098745,-56.90887265124286,-54.95591011939725,45.633272491996976,0.3654953893602263,-1.2887864707899832,-0.27625918693261986,-0.5230938951634294,0.4599879729402024,1.8966262616561687,-3.0440661272071474,-0.26110098472047755,-0.6427547201613844,0.5003819380335138,0.30152807452965513,-1.0871967463434336,4.3837580442483075,-5.664939041985844,0.1610349786691614,0.5128699023003432,0.2231263368184776,0.19219112546377484,10.161892565678347,0.7755323741796628,0.07387398129787598,-0.4142569129230719,-1.2536536337872946,0.9673444753811682,0.5902762398630984,6.3031919374971475,-1.0862038106300962,2.3550962093419727,0.014632465975680436,0.033072124534468984,-0.062055049898518906,-0.003954684740589045,0.36602274342841434,-1.1408665714928174,-0.06506673737229239,-0.304301277811991,-0.18370760623646062,0.4777932016449655,-0.4303889472479269,-4.210549491796326,0.1488339158492876,-1.0492121206468514,0.3702047460417106,-0.38499287318444686,-0.09084545535201498,0.2256678910020501,5.575478738622313,-3.0155397448130907,3.185286550060318,-0.06940700368937466,-0.6279513537698449,0.4917472709865018,-0.12047963547200037,-0.6689132473319384,0.7045962086552799,-1.5461848374150757,-0.08460027530135728
biasActivation=1,1,1
[BASIC:ACTIVATION]
"ActivationTANH"
"ActivationTANH"
"ActivationTANH"
