encog,BasicNetwork,java,3.0.1,1,1385883754888
[BASIC]
[BASIC:PARAMS]
[BASIC:NETWORK]
beginTraining=0
connectionLimit=0
contextTargetOffset=0,0,0
contextTargetSize=0,0,0
endTraining=2
hasContext=f
inputCount=6
layerCounts=2,13,7
layerFeedCounts=1,12,6
layerContextCount=0,0,0
layerIndex=0,2,15
output=0.013389525446221531,1,-0.4057354487507741,0.08455774217385073,-0.28863367494966174,-0.8595805070447085,-0.7151260950516066,0.25192229712826,-0.9062049662667403,0.0308493097705354,-0.3725423852856875,0.17143001549071857,-0.4401723812750233,-0.351189135666716,1,0.25602968460111314,0.31325301204819284,0.2791164658634538,0,0,0.00000004744326659105,1
outputCount=1
weightIndex=0,13,97
weights=-0.25704658997301016,0.5017945245178409,0.12738354239564684,0.28464012254770965,-0.35813931302499485,-0.5564352683336246,-0.31900998645217943,-0.536332732726135,0.19181811356072315,-0.3682169986201337,0.35368967684787345,-0.3479631139507949,-0.07230679044216232,0.5400811527955401,-0.2527790084737872,-0.38983112043532014,5.246979076778279,-2.378219583215959,2.9359829542950675,-0.38078052769344595,-0.6412809802962722,-0.12873544982670762,-0.08846447182485606,-0.11729688268501647,0.033574841330183194,3.3350179326786367,0.31396560784213834,0.35035276717536185,-0.4170923394010064,-0.5274280331153327,-5.066609704244308,2.4071804914419554,-1.9333592759099547,-0.10890646008923383,-0.2350744879604159,-2.3714909018418964,0.19242015868513895,-23.114657471039724,-2.3343274043531084,42.71473927639946,-0.542382889500872,-0.41192267719639014,-0.41246010071222416,0.02668754515200895,-43.237121712342685,7.281412456887466,12.253331151199957,-0.6703783316642571,-0.590571479618771,0.10495367808968445,0.4873656168197886,4.157032331497189,-2.6347466754434756,3.547234178814127,0.23975915368842357,-0.8330055986390562,-1.196890957576453,-0.602840856232834,525.6853121395981,-2.614119150753557,-663.8205028535658,-0.7493806919160385,0.6045623501343048,-0.32593522378924394,-0.3304807314424357,-0.5638992277757944,3.204724709119824,0.4550364737638001,0.0704159765509177,-0.4922269706739211,0.10320362961245498,0.6886821135260086,-7.128137184640489,3.1308031852085985,-1.8903386842435848,-0.48989852585618504,-0.5119573417370163,0.05241042907065141,-0.47420642627013576,27.48435618595581,1.0777720981245433,-31.855604817293965,0.4201584912333423,-0.4681450621559759,-0.48708957837611955,0.28786159578475967,-3.577097198959992,3.5574199647960927,-6.264682416914886,-0.2803498948752321,-0.34327452453046087,-0.44713309081897473,0.34703678425668977,1.0553539868744815,-0.24680371977389534,-1.1311541581262605,-0.23570890985802703
biasActivation=1,1,1
[BASIC:ACTIVATION]
"ActivationTANH"
"ActivationTANH"
"ActivationTANH"
