encog,BasicNetwork,java,3.0.1,1,1385883762915
[BASIC]
[BASIC:PARAMS]
[BASIC:NETWORK]
beginTraining=0
connectionLimit=0
contextTargetOffset=0,0,0
contextTargetSize=0,0,0
endTraining=2
hasContext=f
inputCount=6
layerCounts=2,13,7
layerFeedCounts=1,12,6
layerContextCount=0,0,0
layerIndex=0,2,15
output=-0.0006016027619049084,1,-0.22235660328187648,0.8755100395489406,-0.07317231096130711,-0.38239077055640897,0.501648554715283,-0.5409659976047944,-0.4237497454680154,0.9986538785284865,0.24826208474551303,-0.07617642826765751,-0.40575863386989086,0.11944908993967791,1,0.25602968460111314,0.31325301204819284,0.2791164658634538,0,0,0.00000004744326659105,1
outputCount=1
weightIndex=0,13,97
weights=-0.06304520490966792,-0.4659431927315641,-0.04303413971452711,-0.1616193056795815,-0.42519016671603127,-0.31364203778890265,-0.24921273207262992,0.04804978741841319,-0.2827648585480355,-0.03639403795609479,0.22824012669332816,0.24622924831603707,0.34903056858141984,-0.36217365653530526,-0.3600649834075123,0.5644862563563477,0.00826268622694269,-1.8618758541575517,0.6132954088860999,-0.1781727185676007,2.3919911781130225,-0.04011734938656901,0.567218364652198,0.6453624882310651,-5.531839854587646,8.632444079419356,0.5980311631640433,-0.038092221937123937,0.046321236543518114,-0.4122471159939378,-0.0859520253191285,-1.2880494076030535,-0.1811640284726981,0.03700411452202482,0.2239946682601287,0.1637139312066231,-0.4106886064585928,-6.157506104639356,-2.545121514409909,2.867524171323746,-0.3968602394662249,0.22904932826558852,-0.18336558964489502,0.31650465891631935,-0.7744645634669165,1.5945402967165034,-0.20742305109691223,0.46196138326288205,-0.9671935174354456,-0.6352378230610007,-0.6668892727236606,-0.18693348805315468,-0.046981846269076574,0.9582495304691904,0.027239902461376597,0.02296774537019303,-0.5981266689619068,0.12744886965517974,-4.657325929597069,1.2285252886255966,-2.653968226247162,-0.3063420461133648,13.535773228202522,-0.41221378950729254,1.910689798984989,26.702294694110915,-35.524424493387855,-4.492137980636345,-0.21823646083358034,-0.531100676105032,0.2861582168392347,-0.708691919595716,0.3490533482878837,-0.06655119937888775,0.14626552363363607,0.49770508450624934,-0.13157277363638162,-0.11858618698969974,-0.5170471086219522,-0.16072575409064024,-1.1294228374612176,1.2449667366333894,0.13882602840354902,-0.38920260113019506,-0.33619352201082814,-0.48052997968516203,11.920015678438775,-0.22943815526803613,-17.95666673908218,-0.09143767172306125,-0.38571016145385195,-0.44424414327198936,-0.26149621167696885,0.24802023675453647,0.053019486029541284,0.4316805217627896,0.43092405167783054
biasActivation=1,1,1
[BASIC:ACTIVATION]
"ActivationTANH"
"ActivationTANH"
"ActivationTANH"
