encog,BasicNetwork,java,3.0.1,1,1385883737563
[BASIC]
[BASIC:PARAMS]
[BASIC:NETWORK]
beginTraining=0
connectionLimit=0
contextTargetOffset=0,0,0
contextTargetSize=0,0,0
endTraining=2
hasContext=f
inputCount=6
layerCounts=2,13,7
layerFeedCounts=1,12,6
layerContextCount=0,0,0
layerIndex=0,2,15
output=0.28005377824262584,1,-0.23501577710188362,0.19398359480038882,0.4108149928858781,0.009251339587166793,0.9365022659780119,-0.18702527714131337,0.051780461809312735,-0.23180213848583495,0.26714389741215044,-0.5985551947155545,0.1286671314711458,-0.2921691909770525,1,0.25602968460111314,0.31325301204819284,0.2791164658634538,0,0,0.00000004744326659105,1
outputCount=1
weightIndex=0,13,97
weights=0.16375929579477172,1.1816657263127415,-0.22105402074467895,-1.1027167958936879,-0.24153306083038442,0.8899724334179966,-1.8017527739943786,0.28643906283706627,0.410712200995603,-0.39927036532798854,0.832600271959066,0.0962350207846081,0.32263698071538566,0.8720108416399317,-0.24206157019481267,0.2705481468061525,0.20996767071329722,0.5936275457539555,0.0927198161575872,-0.462440498775798,-0.9974409866518507,-0.8312919896943022,-0.6259017775038068,-1.0483052734353027,-0.07631672463389744,-0.3912815412130157,0.8869519605695761,-0.153601527331709,0.44999310147628396,-0.5457116216502834,0.583537369058076,-0.0526643007915562,-0.7231781930197988,0.4872732834030825,-0.40871687460279893,-0.3876771110058098,-0.24484370407988476,1.22771961085489,1.5505909490094227,-0.8272491955805771,0.30367622737258226,2.9222425127916263,2.8407194334831294,0.18479570802811265,-0.7520772848814777,-0.5538037229798645,-0.5450416677533814,0.019192977389721328,-0.14639419945758023,0.3115056592509417,0.6173811138652489,-0.44948480639974164,0.08222280814981908,0.19154870512857078,-0.42167290474308394,-0.3973343581111713,-0.10534193589558227,0.03791998659573631,0.5443290339562634,-0.9349208162056293,-1.4076747558178317,0.17597085784926497,0.8609282292325477,-0.12533496447012202,0.17233170780461463,-0.027148440537230558,0.025385397427068117,0.5182824523351833,-0.46535536827259416,-0.06568713315234494,0.09003010689030808,0.5454783022224948,0.3976653720809678,-0.11143091417848063,-0.18694520600291434,0.11014937555611409,-0.4344451276653829,0.3427114572415418,-0.4134290832204502,0.8029404427195117,0.5452548299760068,-0.20355681725122945,-0.5716223951340437,-0.08301707065262093,0.5951611437005854,0.1354196053635131,0.6639643581315533,0.09366232800944417,-0.079874403007727,-0.07359471748735302,0.25309680119046196,0.2610551857550751,0.3980841016113467,0.5044955390808675,-0.07720006605141479,-0.27011461406753184,-0.5586246990281916
biasActivation=1,1,1
[BASIC:ACTIVATION]
"ActivationTANH"
"ActivationTANH"
"ActivationTANH"
