encog,BasicNetwork,java,3.0.1,1,1385883730464
[BASIC]
[BASIC:PARAMS]
[BASIC:NETWORK]
beginTraining=0
connectionLimit=0
contextTargetOffset=0,0,0
contextTargetSize=0,0,0
endTraining=2
hasContext=f
inputCount=6
layerCounts=2,13,7
layerFeedCounts=1,12,6
layerContextCount=0,0,0
layerIndex=0,2,15
output=0.30183976854131234,1,0.3941027128033393,-0.1493383401070733,-0.04489692152673979,0.27050834552351627,-0.5420977532909517,0.30525585850517883,-0.06029417847992971,0.29891806359336814,0.2106131354656153,0.27546771881317117,-0.39232595996637765,0.24903655660030596,1,0.25602968460111314,0.31325301204819284,0.2791164658634538,0,0,0.00000004744326659105,1
outputCount=1
weightIndex=0,13,97
weights=0.24854332306826918,0.9933917301108263,-1.017460927075473,0.8544999832288184,-0.24961168092989747,0.226323377225796,0.8605389643666213,-0.5071213009735029,-0.761311111189003,0.24130666231560968,0.6115716230089088,0.21749920555263136,0.3638250258756582,-0.43092376551448763,0.292289222804571,0.3426007859750632,0.5260865978781788,0.356830074849591,-0.5456335335152483,0.3397911976650516,0.6523996752269854,0.04609986211514042,-0.010489383424661929,0.6915127927116691,0.2644770721575471,0.14810466501720804,-0.32901046577789655,1.6603153751125894,0.06957005337503942,0.5505403248876426,-1.3922683226205397,-0.6235541547525068,3.418937346269958,-0.6454752074081359,0.4332779240061189,-0.5922964678145508,0.5097392529080179,-0.08926048130968708,0.6110936110640784,-0.48686314428627886,0.20974226845189395,0.19892752939254613,0.3052749758855708,-0.8719775497641878,0.7582743766189389,2.46033452814929,-2.0609691095065457,-0.5102978783997305,0.6364304201587235,0.03310983642750099,-0.45641818468411066,-12.424170420712228,-1.3248995664326706,17.586359319234937,0.2693815229007891,0.6606451417520095,0.3855534370919621,-0.34409583145060374,0.11642753501887758,-0.6615909837294848,0.08933148519163549,-0.2542451371044893,-0.30819916566988326,0.09309784110681814,-0.6230453747517561,0.6578372045283135,-0.2753264535764154,-0.5240681313642329,0.5319782904360572,0.32675303284575413,-0.2824529263807668,-0.7140884063668427,0.616156131044609,-0.05515990040893095,-0.6396987274947709,0.4179474719043565,-0.23771746930523502,0.6319401957307048,-0.13105797859257423,-0.7993372907293841,0.590513917478946,-0.031993684289839494,0.18225695593776306,0.36414557000530784,0.25667827358316286,0.4406842870796655,0.40975821796581563,-0.4103150336555798,0.3853671156860597,-0.7111857569621994,0.47079078671762137,0.3901309833502396,-0.40663568471310624,0.25288143352113696,-0.5702540881200884,0.27873815831261756,0.12513798224456357
biasActivation=1,1,1
[BASIC:ACTIVATION]
"ActivationTANH"
"ActivationTANH"
"ActivationTANH"
