encog,BasicNetwork,java,3.0.1,1,1385883763482
[BASIC]
[BASIC:PARAMS]
[BASIC:NETWORK]
beginTraining=0
connectionLimit=0
contextTargetOffset=0,0,0
contextTargetSize=0,0,0
endTraining=2
hasContext=f
inputCount=6
layerCounts=2,13,7
layerFeedCounts=1,12,6
layerContextCount=0,0,0
layerIndex=0,2,15
output=0.13312930028757755,1,-0.5200894668214058,0.5626158772911269,-0.580149802283924,-0.197233671088218,0.01594252319379541,-0.3611919948773701,-0.47203986253042496,-0.29925193582161497,-0.06011393874280453,0.22201807308198734,-0.07522022750352446,0.13419897927014032,1,0.12781954887218044,0.14392744479495267,0.13756209400076425,0.0023763260510724035,0.023746701846965697,0.0015629479979986471,1
outputCount=1
weightIndex=0,13,97
weights=0.26061311071792514,0.1571980565298307,-0.15204241492184903,-0.17626271694848658,-0.23900600196686445,0.4016115221870003,-0.0007073423442841709,0.26081532506962,0.1677701396587991,-0.09947606401585171,-0.25707087148188495,-1.323807141141106,0.4751242330510281,-2.662134109507967,-0.5311569662714841,-1.0662085895552196,0.9863607763234377,-0.10677549552279916,-0.13328950761775624,-0.012671679577359516,0.11842618790805556,0.085243841607757,0.11394998738313925,0.5885168868165717,-0.036967509151707593,-0.4381432129418577,0.5937352003654298,0.4143148171579014,-0.47392729630484626,-0.25728555185803326,0.11420399304929062,-0.24376250808478514,0.2437281310453737,-0.6069058924663348,0.09173855253218967,-0.061644308733338406,-0.5082423937119492,-0.5031866388714384,0.36786767679964666,-0.060940186363242346,-0.14023606003124306,-0.779001290258573,-0.10135720923476056,0.33611911798518845,-0.19811046332237195,0.45548614064266024,0.2564370055768278,0.07311998576978203,0.4864195111922654,-0.05316851175144731,0.4198125686173424,-0.3508126505131436,0.6804936728253065,0.3401256944245884,-0.5063853013181254,0.05324161566179908,0.2550915868841593,-0.4011336775640029,0.358241244360732,0.05532057429539525,0.37400673111702876,-0.5037805410841124,-0.1452089254257511,-0.04974038552666099,0.029208776615040774,-0.5633942570980622,-0.29647709440210607,0.8167463036162923,-0.27989360307654876,-0.25069132134515815,0.8444465938892858,0.10585053815977584,-0.3321934645165535,-0.16311211837622283,-0.13613477221717607,-0.15936777131837118,-0.2530331402809636,-0.1576949383333724,0.5755740407249972,-0.1420024561049481,0.6704163390935031,-0.3185090780483287,0.1865549392472012,0.4872917655816143,-0.6747557092567367,-0.00460856389672087,-0.3154481537157974,0.2069675004631009,0.2381173262070652,-0.04443551620794639,-0.5198686388959658,0.3459567741176891,-0.6031653779653814,-0.016194125169471364,-0.052103158555272186,0.1892186411675478,0.23562282544269753
biasActivation=1,1,1
[BASIC:ACTIVATION]
"ActivationTANH"
"ActivationTANH"
"ActivationTANH"
