encog,BasicNetwork,java,3.0.1,1,1385883763197
[BASIC]
[BASIC:PARAMS]
[BASIC:NETWORK]
beginTraining=0
connectionLimit=0
contextTargetOffset=0,0,0
contextTargetSize=0,0,0
endTraining=2
hasContext=f
inputCount=6
layerCounts=2,13,7
layerFeedCounts=1,12,6
layerContextCount=0,0,0
layerIndex=0,2,15
output=0.12132675061136293,1,0.07693811832580777,-0.22761504263603963,-0.16970917264958127,-0.40399332457881476,-0.5303351635029053,0.10946890833535643,0.5331921635941808,0.08916067274560668,0.3941208868642164,0.44587472750193047,0.8448275429977902,0.42588041064937526,1,0.12781954887218044,0.14392744479495267,0.13756209400076425,0.0023763260510724035,0.023746701846965697,0.0015629479979986471,1
outputCount=1
weightIndex=0,13,97
weights=-0.13554287631173495,-0.5972687552358842,-0.08885669642879865,0.35683708411850273,-0.29651615677833243,-0.2236818493155296,0.39874311499050347,0.17584417756374776,-0.13789579572353447,-0.1809699545169157,0.22782178142166065,-0.22493259744304792,-0.1972015665682885,-0.6405394943899112,-0.11216528135410309,-0.09368752124858598,-0.09234993308251281,0.4626961527865104,0.6978025383132006,0.17613677090414845,-0.4270400140817036,0.056557210657655246,-0.4166152156351477,-0.20970334796116782,-0.1048759691188621,0.7998781244257904,-0.1261797480188768,-0.4376579233325124,-0.4285209712941904,0.33388200888353037,0.30248813090899285,0.3399204744250816,0.3428070901418126,-0.10900612811635285,0.023399106091028236,0.8684262177404454,0.4473553726008182,-0.10890858759238102,-0.16691681676456357,0.22932444289213622,-0.6140682488120408,-0.4793637911617996,-0.08484428135686879,-0.17198775644018788,-0.2802645987419329,0.2651752425332435,-0.5396699082726244,-0.498256443794007,0.8927571999288318,1.4825084905456398,0.9321622799995425,0.11814684343117125,0.7095596077112211,1.0195588119808157,-0.36453029899226325,-0.11296988397885076,0.4320361227335881,-0.3227135979421138,0.5716770329109135,0.21446863289067483,0.1368319325342371,0.5845805550837874,0.4739039563997569,0.4424749214389082,-0.519738936344171,0.46965532836585494,-0.059624423459066545,0.3880150233272393,0.036329354352150615,-0.8863275342884817,-0.2376598702866231,-0.303111233396708,0.7507461865940794,-0.0815874392106415,-0.06482672889066582,0.6061165271460633,0.01325948851747339,-0.6870818782473358,-0.599821981269544,-0.13991330658960122,-0.09470715705675027,-0.06073573688201866,0.6619237642476002,0.2486345291391981,0.32496916765609835,0.2600400182409958,-0.24349368483721204,0.3715490173301047,-0.30757949792809125,1.1157142803138995,-0.6808485609479749,0.18121985131222032,0.02483728034666846,-0.39180771718930274,-0.7483857267962833,-0.09653135491393794,0.5312337143265824
biasActivation=1,1,1
[BASIC:ACTIVATION]
"ActivationTANH"
"ActivationTANH"
"ActivationTANH"
