encog,BasicNetwork,java,3.0.1,1,1385883763717
[BASIC]
[BASIC:PARAMS]
[BASIC:NETWORK]
beginTraining=0
connectionLimit=0
contextTargetOffset=0,0,0
contextTargetSize=0,0,0
endTraining=2
hasContext=f
inputCount=6
layerCounts=2,13,7
layerFeedCounts=1,12,6
layerContextCount=0,0,0
layerIndex=0,2,15
output=0.13126781867329215,1,-0.007460893952332295,-0.5298411084465375,-0.28090343053844186,0.22598947507887548,-0.05829239798409651,0.1746871585917238,-0.18260221823736042,-0.21990633881184615,-0.25462252538242075,0.34084553674998985,-0.17624418740646175,-0.08448848642576426,1,0.12781954887218044,0.14392744479495267,0.13756209400076425,0.0023763260510724035,0.023746701846965697,0.0015629479979986471,1
outputCount=1
weightIndex=0,13,97
weights=0.21611732358354332,-0.2744711657590285,0.15629950142342733,0.4557729195504076,0.18877893785405356,-0.18169405368020447,0.2589086000704684,0.207196287711271,0.18996525845433845,0.3290698076063493,-0.35721783715565314,-0.705074121652101,-0.1216145123197665,0.42964066536038725,-0.29899886182423363,0.38297925489246243,-0.5968499520315583,0.7101543333861552,-0.08659348376523532,-0.08733696651866446,-0.08922490085935669,-0.473762690163867,0.2860973283623342,-0.1302064501637472,0.4280316305448309,-0.23453763599074387,-0.5591765907694078,-1.5318275453094437,-1.5232925198631175,-1.9148664676907194,1.936464265069418,0.38744298052274034,-0.2814578154081277,0.37642926060514253,0.5056582100081083,0.49822657870828285,-0.5169930712652498,-0.03874950402646759,0.06184123801671784,-0.7886221516945281,0.1645923282601661,-0.16194100797159688,-0.010084073230990621,0.8483581242833809,-0.21673639541525846,-0.5569075796033003,0.23821596099783995,-0.13954244198320423,0.13425299387828368,-0.31397108647048744,-0.30089951210019816,-0.4103532064688934,-0.8640056898652372,-0.0500512844375204,0.2674892256310543,0.6952184016331613,-0.09667036906859583,0.003494964139913259,-0.5139732117410267,0.5155697010428759,0.16124095622524293,-0.27137683199153306,0.37618144603487336,0.738222782997543,-0.32173880880319045,0.48900804791632313,-0.11404175074219826,-0.09412855002132862,-0.3319392925905819,-0.24147600817628395,0.6004943073499602,0.5613269729875816,0.027330087837225164,-0.33317679066298717,0.2559167028794599,-0.38568228162087737,0.07943131447394701,-0.42634010308544196,0.6440853414636454,0.4266867782003093,-0.23322600679990396,0.3090026250419179,0.32169778214831424,-0.6147015845853148,0.39164565631132386,-0.33026315932962674,0.09294710295845607,0.2800594959889145,-0.36314774091969354,-0.11677357211730784,0.07213351429265141,0.08977178711330039,-0.5827770459610555,0.6653008534920828,0.10880843428117513,-0.5160647408051466,-0.0300212839674385
biasActivation=1,1,1
[BASIC:ACTIVATION]
"ActivationTANH"
"ActivationTANH"
"ActivationTANH"
