encog,BasicNetwork,java,3.0.1,1,1385883771988
[BASIC]
[BASIC:PARAMS]
[BASIC:NETWORK]
beginTraining=0
connectionLimit=0
contextTargetOffset=0,0,0
contextTargetSize=0,0,0
endTraining=2
hasContext=f
inputCount=6
layerCounts=2,13,7
layerFeedCounts=1,12,6
layerContextCount=0,0,0
layerIndex=0,2,15
output=0.013336785733858287,1,-0.37474853878805653,-0.0880290218516976,-0.5395330239279195,0.1880181847464138,0.3930132721648417,0.27572850493895285,0.02470599042007485,0.39890736549118505,0.20492157817136142,-0.13496924893964424,-0.00844624019727359,-0.2164791858394932,1,0.12781954887218044,0.14392744479495267,0.13756209400076425,0.0023763260510724035,0.023746701846965697,0.0015629479979986471,1
outputCount=1
weightIndex=0,13,97
weights=-0.16545664618369496,-0.6467026199262957,-0.38281085549635496,0.235312765067381,0.2694249575950183,-0.2811687646239837,-0.013884037481385992,-0.31549853822650514,-0.3819215674798974,-0.3451308893200473,0.4327903245340195,-0.624887191929185,-0.3584791738602814,0.16435392667872367,0.5780725019255673,-0.40652642651530635,1.3457521735106655,-0.7956432226151232,-0.806485492817444,-0.4252651679191139,0.6086811333063563,-0.2648755074614073,0.00063601268231919,-6.166536648077036,1.4943207140451369,1.2374430373451917,-0.1507889971182377,0.32475008184320286,0.2390291368575538,-0.5382607082639448,2.6136385820006143,-0.5046237305510225,0.2840557729115222,-0.6000363034289352,0.5048325988630713,0.9478870669904482,-0.35731399191194635,-15.546027049148211,1.3477370386134002,2.960927031575234,0.03879069782571182,-0.07301849631129348,-0.4186735750817888,-0.3991125853261992,0.5502876593221818,-0.6426458799398871,-3.236301132387878,0.5588645876072488,0.3862614986461893,0.0049806622451004185,-0.6261790970864439,0.6631502531948117,-0.38686511440557975,-0.29661500194883905,0.32717756423370375,-0.0946572850509021,-0.5058731805637631,-0.19499273446055235,-0.1696914008246372,1.0128742470231833,-0.19218023686962818,0.11309390066094206,-0.7560843383630979,-0.08705130648822727,-0.10391019668038375,-0.10902499799548261,-0.5000907314720591,0.31710473345140583,0.5574533521498969,-0.3325795429922519,-0.3293991166022542,0.18945043912020323,-2.5083536531536055,-2.07929524654599,0.7520929677399056,0.32588463433564796,0.2983999773737211,-0.5566411716716392,-0.3467818821548784,0.20282461152033013,0.3161268191261844,0.2096984258110455,-0.054435951299061605,0.29318097078410027,-0.30380128343983476,0.7162330544977291,-0.5720164622335477,-0.3928654486221005,0.2303987205395311,-0.09039342172021037,0.7262288714055877,0.22342358032552706,0.24721880406428728,-0.4245844085276397,-0.20325384791716716,-1.129534657647965,-0.37134921723146946
biasActivation=1,1,1
[BASIC:ACTIVATION]
"ActivationTANH"
"ActivationTANH"
"ActivationTANH"
