encog,BasicNetwork,java,3.0.1,1,1385883788969
[BASIC]
[BASIC:PARAMS]
[BASIC:NETWORK]
beginTraining=0
connectionLimit=0
contextTargetOffset=0,0,0
contextTargetSize=0,0,0
endTraining=2
hasContext=f
inputCount=6
layerCounts=2,13,7
layerFeedCounts=1,12,6
layerContextCount=0,0,0
layerIndex=0,2,15
output=0.007369157720426907,1,0.7139959915718772,0.588074901417332,0.13663868954467706,0.13715758983335608,0.13563363593103078,-0.20660598377604122,0.42205922300307475,0.7541525084662952,0.3214593717054457,0.5069838378934534,0.999997540943462,0.5061028106379432,1,0.12781954887218044,0.14392744479495267,0.13756209400076425,0.0023763260510724035,0.023746701846965697,0.0015629479979986471,1
outputCount=1
weightIndex=0,13,97
weights=-0.22009218467383346,0.4313592384983583,-0.12209358111133388,-0.49655926054078775,-0.3762096976799761,-0.4137827308545545,-0.1640985330702309,0.19284384021714027,-0.04583154808891466,-0.22736338889490784,-0.1402914665825433,-0.29938413452654516,0.3068074176118441,2.253199117741529,0.6063748622534226,1.6238013263908557,1.9987858537214507,4.020405711944795,-0.9134809012389274,0.1978446577006567,0.22798389626532595,0.6483905133470204,0.7016781075311785,-1.592564293844862,1.5561428912977615,-0.5083213662381197,0.42335750952207307,0.028040119054118667,0.5364617157015227,-0.16200605663951606,-0.22915600304100966,0.2621215921729001,-0.4386522753349155,0.07399456811619746,0.6635153141592345,-0.2957080570435074,-0.6027397162396638,-0.3496517033765302,0.35154242440779854,-0.574013780267091,0.17207199051714367,-0.21484960405995915,0.5615377637972679,0.35665716144623694,-3.2697650551092856,0.12237951698385638,7.329386474001939,0.027461912195873555,0.22074727488853713,-0.3416061350594811,0.49257261562525056,-4.538401153173183,-1.1377294144715098,0.9961929185979995,-0.2201869745917567,-0.003513934232403667,-0.2131406362888327,0.11728245225802672,0.954761830087521,-0.3909637192321404,1.1043492943671525,0.47047647772351053,0.09611596981637258,0.04552005393886713,3.2717209593598575,2.7485451529158342,-1.5650697683902632,-7.051177207175502,0.5552674216722563,0.11138931258072862,0.02535991048901138,-0.10788596316659926,-0.7778808844193941,-0.20744939168421436,1.2435396564290078,0.335058266070635,0.13140134296727507,0.2718711046982346,0.1680977236868674,0.33324969223359,0.11751214574209283,-0.41271767213945576,0.4766751303851689,11.882244344455478,-0.8845195002337661,0.8913220733717544,-18.470900482218145,1.0750410652935545,-29.096542517188208,5.354191351116206,0.4635872684545877,-0.1976046158491243,-1.0611388756735627,0.007248506867307296,0.04456771197232434,-0.36982199077975564,0.6721367975204046
biasActivation=1,1,1
[BASIC:ACTIVATION]
"ActivationTANH"
"ActivationTANH"
"ActivationTANH"
