encog,BasicNetwork,java,3.0.1,1,1385883780189
[BASIC]
[BASIC:PARAMS]
[BASIC:NETWORK]
beginTraining=0
connectionLimit=0
contextTargetOffset=0,0,0
contextTargetSize=0,0,0
endTraining=2
hasContext=f
inputCount=6
layerCounts=2,13,7
layerFeedCounts=1,12,6
layerContextCount=0,0,0
layerIndex=0,2,15
output=0.03700697080354312,1,-0.12609653421495373,-0.5455621600202427,0.18158409010971133,0.3847690306964316,-0.23852661496032793,-0.41529632354084434,-0.39081437396711477,-0.13725524426147592,0.2522710502013524,0.10552308888330894,-0.39036553528256734,0.24214569206877556,1,0.12781954887218044,0.14392744479495267,0.13756209400076425,0.0023763260510724035,0.023746701846965697,0.0015629479979986471,1
outputCount=1
weightIndex=0,13,97
weights=-0.13208116260891986,0.41589181759380556,0.6323443125712559,0.14396218849967873,0.04798768827268136,-0.19122841758646278,-0.426929669742617,-0.39903554996594714,0.21928771133536978,-0.3486986200505069,-0.45001115189042307,-0.9834653961457149,-0.16859333067990118,-0.47774759515834797,-0.42651164862141516,0.4991668273976893,0.3610848839189098,0.4749957786648199,0.6088881055236002,-0.08607482843023548,-1.99998969050859,0.6350165742828107,-2.995501233385501,-1.104545416196435,0.5503255197989959,-1.0310432029665617,-0.044564220896610246,-0.4969750619408723,-1.3289603183631034,0.5446171458196716,0.8398058005118791,1.055078499206353,1.0101744162649275,0.33486948490730045,0.4398080858249209,-0.6968390894124009,0.2131280442284953,5.697771132703141,-0.7342509915060063,-3.1826460511147716,0.42927588743677114,-0.952049357921819,-0.7014230576170121,-0.10131767248881629,-3.0477934140916183,6.135357140665943,-18.843120589821403,-0.11563036790557216,-0.3937948346433772,0.2880210475671309,0.7001712218304122,-2.2906985678460345,-0.5838281470357143,-0.16385271366094803,-0.5098674524304675,-0.6267011574752593,-0.1746163680646441,-2.6741801610954723,1.5310542641889038,1.3153248156670116,4.867343958193608,0.017861399139728625,0.5021363644948267,-0.5258644852385304,0.04155016044589822,-8.014670936731171,2.640860442822377,15.00374674140973,-0.1994556063268182,0.5001928685299537,-0.07023682884885447,0.3938692396611439,8.859984976343432,-1.5940856230217373,-5.191007917372962,0.17474317959855076,0.7673589493721112,-0.5101902485212517,-1.3306126858844025,1.5321760963762325,-2.2047121263418026,1.0168995951366062,0.31143049932776373,-0.14366083279297218,-0.12924388400311754,-0.19202573361390202,1.8153791516017885,2.324110064786995,-2.602739436601559,-0.40428728190671687,0.029457322637240373,0.3677282329219319,-0.6419265247895458,-1.8325454800467775,-1.7672110148262896,-0.697776853269579,0.3260762972524397
biasActivation=1,1,1
[BASIC:ACTIVATION]
"ActivationTANH"
"ActivationTANH"
"ActivationTANH"
