encog,BasicNetwork,java,3.0.1,1,1385883838829
[BASIC]
[BASIC:PARAMS]
[BASIC:NETWORK]
beginTraining=0
connectionLimit=0
contextTargetOffset=0,0,0
contextTargetSize=0,0,0
endTraining=2
hasContext=f
inputCount=7
layerCounts=2,15,8
layerFeedCounts=1,14,7
layerContextCount=0,0,0
layerIndex=0,2,17
output=0.1439151650450086,1,0.5780027140733137,0.20300605654894902,-0.20600560606971355,0.060667662797441506,-0.18006273075289203,0.15393459908273646,-0.20694843809435887,-0.2715354587784942,-0.2642810773821272,-0.7077046150915818,-0.49790955175657314,-0.11685568981987975,0.19689885129857929,0.18806196099045408,1,0.1414646338415396,0.14361001317523056,0.14677461478192738,0.08056747640330827,0.11228533685601057,0.07857329671241309,0.14677461478192738,1
outputCount=1
weightIndex=0,15,127
weights=0.15897920203028404,-0.30831957288845907,0.4915168133709448,-0.4435112010622366,-0.21591550423476183,0.21597167763064015,0.3027530758446768,0.2545636728370269,-0.20450673469918543,0.33283619673682097,-0.1561476338910579,-0.38137944678745034,-0.14103089584852724,-0.04629841324869631,0.3991015833712768,-0.10830022690833291,-0.025331478811583895,-0.30143108940061525,0.37878470626900707,0.4482298635963835,-0.32131846755008275,0.43935896387747186,0.6025720468829898,0.3405863770187111,0.3951560178637328,-0.2525673960112418,-0.3541423033109886,0.5493056358903944,0.34506599564420865,0.3179590851402144,0.031079117872334912,0.39903829128955115,0.20251046698283456,-0.07094091636853474,-0.667780221539075,0.020246143066672048,-0.24312101305450082,0.5507012573292525,-0.294314446625623,0.5072256785337755,-0.5711667867452807,-0.3598144208923038,-0.29010595018026236,-0.2677816029265598,-0.2017542627268377,-0.38002674008835163,0.2488964836461111,-0.3146516121544219,0.11420874674971063,0.400640677626635,0.2783249108309512,-0.7567048527788889,0.4214216374709963,-0.22055341020674185,-0.15093876822401142,0.36488092928146404,0.23184782674112228,0.297697067500116,0.6016335471387354,-0.48305097767121646,0.25290832957618276,-0.3982148806563251,0.07090370548653246,-0.3430652465908829,0.2675808765127461,-0.4985259725254112,-0.3018807767713779,0.2921788296652605,-0.5406913620095843,-0.2508926348276906,-0.05588291958164924,0.042077312326751985,0.2858580359847323,0.058172660569013455,-0.6014222820137407,-0.34536143025331606,0.2565114227716457,0.5620205185241633,-0.34947475146428975,-0.037115756563470034,-0.19519218438033084,0.27646665034101686,-0.5010254196803998,-0.7356872373402119,-0.6499384175900561,-0.5882405601224113,-0.017621725418430628,-0.7178414708543412,-0.3059756158697731,-0.09387044253125644,-0.593479000539957,-0.0990785045197851,-0.22879600894756447,-0.2473166797571839,-0.6100848903271211,-0.15828634189625929,-0.0914386668617764,0.10079004879687894,-0.1399004891591776,-0.16639630265143185,-0.3326808731569529,-0.6627119121276187,-0.3724283320467054,0.1753437082141682,-0.6988721038566295,0.07448836709682607,-0.0992875588365871,0.35131503677738357,-0.5335811050134277,-0.3561591056423782,0.009987271323397572,-0.05103524560387063,-0.5383014708157673,0.0861858928008335,-0.566178309232059,-0.028888779595902497,-0.3854438034554458,-0.4086999141501187,0.4105112344564203,0.8764323188284161,0.13233686397011465,0.10761684726444139,0.7641553556233751,0.5272909500302777,-0.06803978872821946,-0.161499760653696,-0.06018012017881034
biasActivation=1,1,1
[BASIC:ACTIVATION]
"ActivationTANH"
"ActivationTANH"
"ActivationTANH"
