encog,BasicNetwork,java,3.0.1,1,1385883836868
[BASIC]
[BASIC:PARAMS]
[BASIC:NETWORK]
beginTraining=0
connectionLimit=0
contextTargetOffset=0,0,0
contextTargetSize=0,0,0
endTraining=2
hasContext=f
inputCount=7
layerCounts=2,15,8
layerFeedCounts=1,14,7
layerContextCount=0,0,0
layerIndex=0,2,17
output=0.27568299479023367,1,0.5274544179379909,0.5814703803767599,-0.08154483174386398,-0.02129800328083667,-0.4120365935268566,0.18456786321283777,-0.15667313283569975,-0.3155311841782631,0.9889654962529125,-0.2596975593847288,-0.09760281265888093,0.47694295068486636,-0.08301377619660451,-0.5187047850019672,1,0.25602968460111314,0.31325301204819284,0.2791164658634538,0,0,0.00000004744326659105,0.2791164658634538,1
outputCount=1
weightIndex=0,15,127
weights=0.6923807790053612,0.19564588007939934,-0.29949000864187875,-0.25086778400760823,-0.4269317450165368,-0.2932435672821052,-0.2579328573568853,-0.07958792536495903,-0.36929410596142304,-0.08624470118272941,-0.44440250615747273,0.14165038066039212,0.06032053499543436,-0.1597638811604112,-0.2590096400721493,0.36041613576905474,0.13397995796308756,-0.41573114281500567,-8.150462451046828,0.6032658259131063,8.634633577849023,0.05877753695603514,0.5519961830322188,0.3372427296735586,-0.04093954900746385,-0.3481892678459175,-0.0777286602092088,0.1917495971187048,0.23946703666110752,0.2696838147090939,0.6130737659186188,-0.5613182491715231,-0.09594540957575722,0.3886854199636553,0.28296944067513324,-0.13537042943923516,-0.35965868700657666,-0.19441440723157347,0.03781879935423239,0.04665173477386695,-0.13508527968268133,-0.24626701357743097,3.259366489045454,0.11527224550505785,-0.014759154781698201,-0.20097751026845803,0.1339037289258361,0.06606562451339928,0.28166584934904715,-0.0260541087862386,-0.2866671023073156,0.1534874310657128,0.28934999894802504,-0.5518328969966507,-0.38191148258205476,-0.04797943802535002,-0.5748659583848981,0.46896186679136254,0.22710500829941377,-0.2787593568591686,-0.3203377985111863,-0.5931775114898994,0.4137408567041443,-0.4327040729736028,0.39156154986271374,0.1279185980410148,-0.6570367756342147,0.3599559335415698,0.1384757057165039,-0.4689011557595145,-0.07467318219351879,-0.3373270179721504,0.0525914990969559,-0.18463370263983986,0.5010531188042322,-0.5779512570683442,0.17396975875952214,0.18249982459077135,-0.2561894828858787,-0.4667569081640801,-1.8917304551314036,-1.1028561341560372,12.949417652845005,-0.42597397579465124,-6.189641146205763,-1.3696857468557913,3.9993927639873474,0.39688001728577715,0.3034088701387444,-0.6308090952798955,-0.007298158709742408,0.24890348081189392,-0.0014839406863728444,-0.359362411896594,-0.1860677026825724,-0.08723948118189175,0.29720428697425216,-0.21131937007036922,0.5062081483010962,0.4127786404713748,-0.4816275271788801,-0.3960991149522788,0.0008617546291123092,-0.4283692955564959,0.37097890275034545,0.37291479359333196,-0.26884581345340913,-0.011765440165014055,-0.49089142602014846,-0.09083429045734265,0.43375126592252683,-0.3004355963064123,0.148656206934251,0.21888453008866068,-0.17513473617231018,0.4712804068923339,-0.2002797388804532,0.430138717921721,-0.23400489850987646,-0.04930918565827565,-0.3363349010553236,-0.06183099913081629,7.466477710315587,1.7336571594187915,-16.218019432041174,0.33326350981546987,-0.5323441281135066
biasActivation=1,1,1
[BASIC:ACTIVATION]
"ActivationTANH"
"ActivationTANH"
"ActivationTANH"
