encog,BasicNetwork,java,3.0.1,1,1385883838178
[BASIC]
[BASIC:PARAMS]
[BASIC:NETWORK]
beginTraining=0
connectionLimit=0
contextTargetOffset=0,0,0
contextTargetSize=0,0,0
endTraining=2
hasContext=f
inputCount=7
layerCounts=2,15,8
layerFeedCounts=1,14,7
layerContextCount=0,0,0
layerIndex=0,2,17
output=0.1285473712409789,1,-0.40267146601366677,0.7271299875186169,-0.27103213346425464,-0.10013849986168945,-0.31482934899067,0.2716751873832991,-0.5285262547905862,-0.08146166672211051,0.21054377110946873,0.1338600879006459,0.3747808643831345,0.6173488238545588,-0.038210721386646336,0.9594450820049707,1,0.12781954887218044,0.14392744479495267,0.13756209400076425,0.0023763260510724035,0.023746701846965697,0.0015629479979986471,0.13756209400076425,1
outputCount=1
weightIndex=0,15,127
weights=-0.28176134001719333,-0.349286874518454,0.20592590129635827,0.008191142977295373,-0.22316363547046858,-0.45710785048242425,-0.15388506772791732,0.1404279642073749,0.19774264414651893,-0.292401586085145,0.1392796955144855,0.12472002492308094,-1.5748903656036768,0.16683800830806356,-0.041488686019157235,0.2173706634985552,-0.6307694363446836,0.09575437478874922,-0.34772498389969025,-0.39414371096703144,0.30130619843016543,0.13989300747992042,-0.3865336476207856,1.0112258640164151,2.157012455673257,0.4241416256533369,0.08173742133844336,-0.683981995892102,0.027096747786374113,0.2213505139918911,0.4101131587283406,0.06749225422712726,0.6235082336457068,0.24069973401835473,-0.9881914790425494,0.5493655316866908,-0.2411993208295049,-0.17758421601180988,-0.39534690186714694,-0.09394564595887961,0.5958678375682608,-0.19762769224435858,0.31195018237137406,0.6338080547848539,-0.09332515555506776,0.28079290762239384,-0.20131555881167648,0.6230083296043698,-0.10081406776697796,-0.2637058209305336,0.49729986635512413,-0.03566735808906876,0.43138064408333243,-0.5491419547817878,-0.2802117957348183,-0.4353891648449831,0.2068652237792731,-0.39163405430005177,0.9123435231383755,0.03284616613532482,-0.02153441612108915,-0.16818525142225654,0.3786448406889044,0.30751647874988614,-0.2314131056280327,0.19046405294277666,-0.25394340107185487,-0.5139614888001138,-0.018479656304003778,-0.36095883531923656,-0.5578070265415335,-0.3482093224128978,0.19462709116367496,0.3339152061753781,-1.0378759905284174,0.16120551208982853,-0.03303648003750903,0.3399487891281407,-0.15915507774876034,-0.1651332910124615,0.5260798774204735,0.11652173003465048,0.06944310543673919,0.37973357900010507,-0.6243043956487431,-0.24333115725587148,0.16836768868220328,0.07564332090835778,0.33995650310797865,-0.39499938062550155,1.1959128793216571,-0.21895002865213187,0.017083091735962046,-0.5972224863984582,0.21489343417504816,0.7566604828033308,-0.4686001717467524,-0.13824741323706052,0.1295724725852091,0.2312816846367362,0.3940928366896849,0.03257611802941006,0.37282246855841356,0.47330975856750906,0.1227674677118748,0.07568407019640155,0.073308537439999,0.16646140611927937,0.23045141755320578,-0.5485275337774752,0.7031000674021299,-0.11395535876328479,0.12986561204425515,-0.7198021868369353,-0.35227197166567853,0.3302294672155313,-0.48637366407647725,0.2857966183952807,0.011103306418310753,-0.04525478534986992,-0.2176113069863583,0.2745003040104196,0.2748621318137054,0.3493440655976104,-0.4645064655285625,0.07171528011962514,1.920135380560407
biasActivation=1,1,1
[BASIC:ACTIVATION]
"ActivationTANH"
"ActivationTANH"
"ActivationTANH"
